<?xml version="1.0"?>
<opencv_storage>
<cascade>
  <stageType>BOOST</stageType>
  <featureType>HAAR</featureType>
  <height>20</height>
  <width>20</width>
  <stageParams>
    <boostType>GAB</boostType>
    <minHitRate>9.9500000476837158e-001</minHitRate>
    <maxFalseAlarm>4.0000000596046448e-001</maxFalseAlarm>
    <weightTrimRate>9.4999999999999996e-001</weightTrimRate>
    <maxDepth>1</maxDepth>
    <maxWeakCount>100</maxWeakCount></stageParams>
  <featureParams>
    <maxCatCount>0</maxCatCount>
    <featSize>1</featSize>
    <mode>ALL</mode></featureParams>
  <stageNum>4</stageNum>
  <stages>
    <!-- stage 0 -->
    <_>
      <maxWeakCount>1</maxWeakCount>
      <stageThreshold>9.0476191043853760e-001</stageThreshold>
      <weakClassifiers>
        <_>
          <internalNodes>
            0 -1 4 7.0714250206947327e-002</internalNodes>
          <leafValues>
            -1. 9.0476191043853760e-001</leafValues></_></weakClassifiers></_>
    <!-- stage 1 -->
    <_>
      <maxWeakCount>2</maxWeakCount>
      <stageThreshold>-1.6854667663574219e-001</stageThreshold>
      <weakClassifiers>
        <_>
          <internalNodes>
            0 -1 5 -4.6367477625608444e-003</internalNodes>
          <leafValues>
            7.8125000000000000e-001 -9.4594591856002808e-001</leafValues></_>
        <_>
          <internalNodes>
            0 -1 2 -3.6260178312659264e-003</internalNodes>
          <leafValues>
            7.8624159097671509e-001 -9.4979667663574219e-001</leafValues></_></weakClassifiers></_>
    <!-- stage 2 -->
    <_>
      <maxWeakCount>2</maxWeakCount>
      <stageThreshold>-9.0814396739006042e-002</stageThreshold>
      <weakClassifiers>
        <_>
          <internalNodes>
            0 -1 3 8.6811278015375137e-003</internalNodes>
          <leafValues>
            -8.6991870403289795e-001 1.</leafValues></_>
        <_>
          <internalNodes>
            0 -1 0 2.7807319536805153e-002</internalNodes>
          <leafValues>
            -9.5059603452682495e-001 7.7910429239273071e-001</leafValues></_></weakClassifiers></_>
    <!-- stage 3 -->
    <_>
      <maxWeakCount>1</maxWeakCount>
      <stageThreshold>1.</stageThreshold>
      <weakClassifiers>
        <_>
          <internalNodes>
            0 -1 1 3.6326600238680840e-003</internalNodes>
          <leafValues>
            -1. 1.</leafValues></_></weakClassifiers></_></stages>
  <features>
    <_>
      <rects>
        <_>
          0 3 8 8 -1.</_>
        <_>
          4 3 4 8 2.</_></rects>
      <tilted>0</tilted></_>
    <_>
      <rects>
        <_>
          0 14 20 6 -1.</_>
        <_>
          0 14 10 3 2.</_>
        <_>
          10 17 10 3 2.</_></rects>
      <tilted>0</tilted></_>
    <_>
      <rects>
        <_>
          12 12 6 3 -1.</_>
        <_>
          14 12 2 3 3.</_></rects>
      <tilted>0</tilted></_>
    <_>
      <rects>
        <_>
          13 0 4 2 -1.</_>
        <_>
          13 1 4 1 2.</_></rects>
      <tilted>0</tilted></_>
    <_>
      <rects>
        <_>
          13 3 4 4 -1.</_>
        <_>
          13 3 2 4 2.</_></rects>
      <tilted>1</tilted></_>
    <_>
      <rects>
        <_>
          14 6 2 12 -1.</_>
        <_>
          14 12 2 6 2.</_></rects>
      <tilted>0</tilted></_></features></cascade>
</opencv_storage>
